digraph Tree {
node [shape=box, style="filled", color="black"] ;
graph [ranksep=equally, splines=polyline] ;
0 [label="age <= 33.5\nmse = 204.7571\nsamples = 1015\nvalue = 29.8539", fillcolor="#e5813970"] ;
1 [label="age <= 15.5\nmse = 67.4022\nsamples = 661\nvalue = 21.4792", fillcolor="#e581394d"] ;
0 -> 1 [labeldistance=2.5, labelangle=45, headlabel="True"] ;
2 [label="age <= 7.5\nmse = 23.007\nsamples = 111\nvalue = 6.6734", fillcolor="#e581390f"] ;
1 -> 2 ;
3 [label="mse = 4.1082\nsamples = 63\nvalue = 2.9722", fillcolor="#e5813900"] ;
2 -> 3 ;
4 [label="mse = 6.2334\nsamples = 48\nvalue = 11.5312", fillcolor="#e5813924"] ;
2 -> 4 ;
5 [label="age <= 24.75\nmse = 23.1926\nsamples = 550\nvalue = 24.4673", fillcolor="#e581395a"] ;
1 -> 5 ;
6 [label="mse = 6.3093\nsamples = 287\nvalue = 20.5279", fillcolor="#e5813949"] ;
5 -> 6 ;
7 [label="mse = 6.201\nsamples = 263\nvalue = 28.7662", fillcolor="#e581396c"] ;
5 -> 7 ;
8 [label="age <= 48.5\nmse = 85.7358\nsamples = 354\nvalue = 45.4915", fillcolor="#e58139b1"] ;
0 -> 8 [labeldistance=2.5, labelangle=-45, headlabel="False"] ;
9 [label="age <= 40.75\nmse = 18.845\nsamples = 240\nvalue = 40.1792", fillcolor="#e581399b"] ;
8 -> 9 ;
10 [label="mse = 4.1094\nsamples = 136\nvalue = 36.875", fillcolor="#e581398e"] ;
9 -> 10 ;
11 [label="mse = 5.1683\nsamples = 104\nvalue = 44.5", fillcolor="#e58139ad"] ;
9 -> 11 ;
12 [label="age <= 58.5\nmse = 42.0657\nsamples = 114\nvalue = 56.6754", fillcolor="#e58139e0"] ;
8 -> 12 ;
13 [label="mse = 8.3889\nsamples = 75\nvalue = 52.8333", fillcolor="#e58139d0"] ;
12 -> 13 ;
14 [label="mse = 23.8485\nsamples = 39\nvalue = 64.0641", fillcolor="#e58139ff"] ;
12 -> 14 ;
{rank=same ; 0} ;
{rank=same ; 1; 8} ;
{rank=same ; 2; 5; 9; 12} ;
{rank=same ; 3; 4; 6; 7; 10; 11; 13; 14} ;
}