digraph Tree {
node [shape=box, style="filled", color="black"] ;
graph [ranksep=equally, splines=polyline] ;
0 [label="Hue <= -0.225\nmse = 0.5824\nsamples = 178\nvalue = 0.6323", fillcolor="#e58139a9"] ;
1 [label="mse = 0.0\nsamples = 30\nvalue = -1.0", fillcolor="#e5813900"] ;
0 -> 1 [labeldistance=2.5, labelangle=45, headlabel="True"] ;
2 [label="Hue <= 0.945\nmse = 0.0509\nsamples = 148\nvalue = 0.9632", fillcolor="#e58139cb"] ;
0 -> 2 [labeldistance=2.5, labelangle=-45, headlabel="False"] ;
3 [label="Hue <= 0.745\nmse = 0.0161\nsamples = 66\nvalue = 0.7574", fillcolor="#e58139b6"] ;
2 -> 3 ;
4 [label="Hue <= 0.63\nmse = 0.0036\nsamples = 29\nvalue = 0.631", fillcolor="#e58139a9"] ;
3 -> 4 ;
5 [label="mse = 0.0004\nsamples = 16\nvalue = 0.5825", fillcolor="#e58139a4"] ;
4 -> 5 ;
6 [label="mse = 0.001\nsamples = 13\nvalue = 0.6908", fillcolor="#e58139af"] ;
4 -> 6 ;
7 [label="Hue <= 0.85\nmse = 0.0036\nsamples = 37\nvalue = 0.8565", fillcolor="#e58139c0"] ;
3 -> 7 ;
8 [label="mse = 0.0008\nsamples = 14\nvalue = 0.7879", fillcolor="#e58139b9"] ;
7 -> 8 ;
9 [label="mse = 0.0007\nsamples = 23\nvalue = 0.8983", fillcolor="#e58139c4"] ;
7 -> 9 ;
10 [label="Hue <= 1.165\nmse = 0.0174\nsamples = 82\nvalue = 1.1288", fillcolor="#e58139dc"] ;
2 -> 10 ;
11 [label="Hue <= 1.055\nmse = 0.0036\nsamples = 55\nvalue = 1.0553", fillcolor="#e58139d5"] ;
10 -> 11 ;
12 [label="mse = 0.0014\nsamples = 27\nvalue = 1.0048", fillcolor="#e58139cf"] ;
11 -> 12 ;
13 [label="mse = 0.001\nsamples = 28\nvalue = 1.1039", fillcolor="#e58139da"] ;
11 -> 13 ;
14 [label="Hue <= 1.345\nmse = 0.0119\nsamples = 27\nvalue = 1.2785", fillcolor="#e58139ec"] ;
10 -> 14 ;
15 [label="mse = 0.0014\nsamples = 22\nvalue = 1.2364", fillcolor="#e58139e7"] ;
14 -> 15 ;
16 [label="mse = 0.0161\nsamples = 5\nvalue = 1.464", fillcolor="#e58139ff"] ;
14 -> 16 ;
{rank=same ; 0} ;
{rank=same ; 2} ;
{rank=same ; 3; 10} ;
{rank=same ; 4; 7; 11; 14} ;
{rank=same ; 1; 5; 6; 8; 9; 12; 13; 15; 16} ;
}