digraph Tree {
node [shape=box, style="filled", color="black"] ;
graph [ranksep=equally, splines=polyline] ;
0 [label="age <= 33.5\nmse = 204.7571\nsamples = 1015\nvalue = 29.8539", fillcolor="#e5813965"] ;
1 [label="age <= 15.5\nmse = 67.4022\nsamples = 661\nvalue = 21.4792", fillcolor="#e5813947"] ;
0 -> 1 [labeldistance=2.5, labelangle=45, headlabel="True"] ;
2 [label="age <= 7.5\nmse = 23.007\nsamples = 111\nvalue = 6.6734", fillcolor="#e5813912"] ;
1 -> 2 ;
3 [label="age <= 3.5\nmse = 4.1082\nsamples = 63\nvalue = 2.9722", fillcolor="#e5813905"] ;
2 -> 3 ;
4 [label="mse = 0.7652\nsamples = 38\nvalue = 1.5329", fillcolor="#e5813900"] ;
3 -> 4 ;
5 [label="mse = 1.2544\nsamples = 25\nvalue = 5.16", fillcolor="#e581390d"] ;
3 -> 5 ;
6 [label="age <= 11.75\nmse = 6.2334\nsamples = 48\nvalue = 11.5312", fillcolor="#e5813924"] ;
2 -> 6 ;
7 [label="mse = 1.1744\nsamples = 25\nvalue = 9.34", fillcolor="#e581391c"] ;
6 -> 7 ;
8 [label="mse = 0.8403\nsamples = 23\nvalue = 13.913", fillcolor="#e581392c"] ;
6 -> 8 ;
9 [label="age <= 24.75\nmse = 23.1926\nsamples = 550\nvalue = 24.4673", fillcolor="#e5813952"] ;
1 -> 9 ;
10 [label="age <= 20.25\nmse = 6.3093\nsamples = 287\nvalue = 20.5279", fillcolor="#e5813944"] ;
9 -> 10 ;
11 [label="mse = 1.6223\nsamples = 130\nvalue = 18.1192", fillcolor="#e581393b"] ;
10 -> 11 ;
12 [label="mse = 1.4087\nsamples = 157\nvalue = 22.5223", fillcolor="#e581394b"] ;
10 -> 12 ;
13 [label="age <= 28.75\nmse = 6.201\nsamples = 263\nvalue = 28.7662", fillcolor="#e5813961"] ;
9 -> 13 ;
14 [label="mse = 1.3675\nsamples = 126\nvalue = 26.5397", fillcolor="#e5813959"] ;
13 -> 14 ;
15 [label="mse = 1.8942\nsamples = 137\nvalue = 30.8139", fillcolor="#e5813968"] ;
13 -> 15 ;
16 [label="age <= 48.5\nmse = 85.7358\nsamples = 354\nvalue = 45.4915", fillcolor="#e581399d"] ;
0 -> 16 [labeldistance=2.5, labelangle=-45, headlabel="False"] ;
17 [label="age <= 40.75\nmse = 18.845\nsamples = 240\nvalue = 40.1792", fillcolor="#e581398a"] ;
16 -> 17 ;
18 [label="age <= 37.5\nmse = 4.1094\nsamples = 136\nvalue = 36.875", fillcolor="#e581397e"] ;
17 -> 18 ;
19 [label="mse = 0.8824\nsamples = 83\nvalue = 35.4217", fillcolor="#e5813979"] ;
18 -> 19 ;
20 [label="mse = 0.6753\nsamples = 53\nvalue = 39.1509", fillcolor="#e5813986"] ;
18 -> 20 ;
21 [label="age <= 44.5\nmse = 5.1683\nsamples = 104\nvalue = 44.5", fillcolor="#e5813999"] ;
17 -> 21 ;
22 [label="mse = 1.1094\nsamples = 48\nvalue = 42.375", fillcolor="#e5813992"] ;
21 -> 22 ;
23 [label="mse = 1.4592\nsamples = 56\nvalue = 46.3214", fillcolor="#e58139a0"] ;
21 -> 23 ;
24 [label="age <= 58.5\nmse = 42.0657\nsamples = 114\nvalue = 56.6754", fillcolor="#e58139c5"] ;
16 -> 24 ;
25 [label="age <= 52.5\nmse = 8.3889\nsamples = 75\nvalue = 52.8333", fillcolor="#e58139b7"] ;
24 -> 25 ;
26 [label="mse = 0.9952\nsamples = 38\nvalue = 50.2895", fillcolor="#e58139ae"] ;
25 -> 26 ;
27 [label="mse = 2.5106\nsamples = 37\nvalue = 55.4459", fillcolor="#e58139c0"] ;
25 -> 27 ;
28 [label="age <= 68.5\nmse = 23.8485\nsamples = 39\nvalue = 64.0641", fillcolor="#e58139df"] ;
24 -> 28 ;
29 [label="mse = 4.71\nsamples = 32\nvalue = 62.0938", fillcolor="#e58139d8"] ;
28 -> 29 ;
30 [label="mse = 12.4592\nsamples = 7\nvalue = 73.0714", fillcolor="#e58139ff"] ;
28 -> 30 ;
{rank=same ; 0} ;
{rank=same ; 1; 16} ;
{rank=same ; 2; 9; 17; 24} ;
{rank=same ; 3; 6; 10; 13; 18; 21; 25; 28} ;
{rank=same ; 4; 5; 7; 8; 11; 12; 14; 15; 19; 20; 22; 23; 26; 27; 29; 30} ;
}