digraph Tree {
node [shape=box, style="filled", color="black"] ;
graph [ranksep=equally, splines=polyline] ;
0 [label="Hue <= -0.225\nmse = 0.5824\nsamples = 178\nvalue = 0.6323", fillcolor="#e58139d4"] ;
1 [label="mse = 0.0\nsamples = 30\nvalue = -1.0", fillcolor="#e5813900"] ;
0 -> 1 [labeldistance=2.5, labelangle=45, headlabel="True"] ;
2 [label="mse = 0.0509\nsamples = 148\nvalue = 0.9632", fillcolor="#e58139ff"] ;
0 -> 2 [labeldistance=2.5, labelangle=-45, headlabel="False"] ;
{rank=same ; 0} ;
{rank=same ; 1; 2} ;
}